
    // !!! This file is generated using emlearn !!!

    #include <eml_trees.h>
    

EmlTreesNode rf_model_nodes[784] = {
  { 12, -0.16587115079164505, 1, 15 },
  { 12, -0.30269356071949005, 2, 11 },
  { 13, 0.3099822998046875, 3, 10 },
  { 9, 0.1418023258447647, 4, 8 },
  { 2, 186.0, 5, 7 },
  { 1, 40.5, 6, 6 },
  { -1, 1, -1, -1 },
  { -1, 4, -1, -1 },
  { 9, 0.20312928408384323, 9, 10 },
  { 12, -0.44867701828479767, 7, 6 },
  { -1, 5, -1, -1 },
  { 12, -0.18731345981359482, 12, 6 },
  { 6, 0.10337705537676811, 13, 6 },
  { 11, 0.03948398679494858, 14, 14 },
  { -1, 0, -1, -1 },
  { 3, -0.05639936588704586, 16, 17 },
  { -1, 3, -1, -1 },
  { -1, 2, -1, -1 },
  { 12, -0.16480056196451187, 19, 25 },
  { 13, 0.30662068724632263, 20, 10 },
  { 10, 0.02187756448984146, 21, 7 },
  { 12, -0.2288595214486122, 22, 24 },
  { 14, 0.5820871591567993, 23, 7 },
  { 4, -0.02949064690619707, 14, 6 },
  { 11, 0.037478331476449966, 6, 14 },
  { 14, 0.2157985121011734, 26, 27 },
  { 3, -0.05330210365355015, 17, 17 },
  { 6, 0.07572386600077152, 14, 16 },
  { 3, -0.05548747256398201, 29, 17 },
  { 12, -0.16268959641456604, 30, 37 },
  { 13, 0.30662068724632263, 31, 10 },
  { 6, 0.11501412838697433, 32, 34 },
  { 13, 0.14166966825723648, 6, 33 },
  { 12, -0.2444981262087822, 6, 14 },
  { 9, 0.1402362585067749, 35, 36 },
  { 12, -0.3370903581380844, 7, 6 },
  { 14, 0.9022251069545746, 7, 10 },
  { 11, 0.04679709114134312, 14, 16 },
  { 12, -0.4377187341451645, 39, 40 },
  { 10, 0.03778693079948425, 7, 10 },
  { 3, -0.05996716022491455, 41, 17 },
  { 14, 0.3387337923049927, 42, 44 },
  { 3, -0.1297014020383358, 14, 43 },
  { 1, 30.5, 14, 16 },
  { 9, 0.1012706384062767, 45, 47 },
  { 7, 0.010963774751871824, 6, 46 },
  { 5, 0.07745353877544403, 14, 6 },
  { 3, -0.29133470356464386, 6, 6 },
  { 5, 0.01832117699086666, 49, 50 },
  { 14, 0.2157985121011734, 17, 16 },
  { 7, -0.0013232830096967518, 51, 53 },
  { 14, 0.22042665630578995, 17, 52 },
  { 6, 0.08003082498908043, 14, 16 },
  { 9, 0.20312928408384323, 54, 10 },
  { 3, -0.28409796953201294, 55, 57 },
  { 13, 0.13716360926628113, 6, 56 },
  { 5, 0.11773491650819778, 7, 7 },
  { 14, 0.45119327306747437, 58, 59 },
  { 4, -0.01227973261848092, 14, 6 },
  { 14, 0.5728012919425964, 6, 7 },
  { 10, 0.03778693079948425, 61, 10 },
  { 9, 0.04115231893956661, 17, 62 },
  { 3, -0.12089431285858154, 63, 68 },
  { 5, 0.06475081667304039, 64, 66 },
  { 10, 0.009690802078694105, 65, 6 },
  { 12, -0.3109750598669052, 6, 14 },
  { 8, 0.020656109787523746, 67, 6 },
  { 2, 47.0, 6, 7 },
  { 4, -0.015649891924113035, 69, 71 },
  { 11, 0.051234371960163116, 70, 16 },
  { 14, 0.2909906357526779, 16, 14 },
  { 5, 0.01744041219353676, 17, 14 },
  { 9, 0.19363075494766235, 73, 10 },
  { 12, -0.27682332694530487, 74, 78 },
  { 9, 0.1418023258447647, 75, 7 },
  { 2, 69.5, 76, 77 },
  { 9, 0.0984407402575016, 6, 6 },
  { 13, 0.09534836560487747, 6, 7 },
  { 12, -0.0794537179172039, 79, 17 },
  { 7, 0.011764275375753641, 80, 81 },
  { 4, -0.00896847469266504, 16, 6 },
  { 0, 9.609126567840576, 14, 14 },
  { 10, 0.04095705412328243, 83, 10 },
  { 3, -0.10968370735645294, 84, 90 },
  { 6, 0.12940287590026855, 85, 7 },
  { 10, 0.006142181111499667, 86, 88 },
  { 10, 0.003510033478960395, 6, 87 },
  { 14, 0.4286321699619293, 14, 14 },
  { 7, 0.02114291861653328, 6, 89 },
  { 2, 69.5, 6, 7 },
  { 13, 0.14176487922668457, 17, 91 },
  { 7, 0.011764275375753641, 92, 14 },
  { 5, 0.02450666856020689, 16, 16 },
  { 3, -0.4268839955329895, 10, 94 },
  { 3, -0.11714291572570801, 95, 100 },
  { 14, 0.5806885063648224, 96, 7 },
  { 0, 9.608754634857178, 14, 97 },
  { 11, 0.06996108219027519, 98, 99 },
  { 14, 0.48274514079093933, 6, 14 },
  { 1, 5.0, 6, 6 },
  { 14, 0.2157985121011734, 101, 102 },
  { 11, 0.03920779936015606, 17, 16 },
  { 14, 0.35593707859516144, 16, 14 },
  { 6, 0.24593743681907654, 104, 115 },
  { 6, 0.0852755531668663, 105, 109 },
  { 6, 0.0544715728610754, 14, 106 },
  { 7, 0.01958189718425274, 6, 107 },
  { 0, 9.609079837799072, 108, 6 },
  { 3, -0.2928667217493057, 6, 14 },
  { 10, 0.008253947831690311, 110, 113 },
  { 10, 0.002891442971304059, 111, 112 },
  { 3, -0.0607433095574379, 16, 17 },
  { 7, 0.013810541480779648, 16, 6 },
  { 12, -0.42596057057380676, 7, 114 },
  { 0, 9.609219551086426, 6, 7 },
  { 13, 0.293277382850647, 7, 10 },
  { 14, 0.5806885063648224, 117, 125 },
  { 9, 0.05359448306262493, 118, 119 },
  { 7, 0.009739371947944164, 17, 6 },
  { 13, 0.17608051002025604, 120, 124 },
  { 12, -0.30521805584430695, 121, 123 },
  { 1, 40.5, 122, 6 },
  { 6, 0.09607165679335594, 14, 6 },
  { 3, -0.08246473595499992, 14, 16 },
  { 14, 0.39283913373947144, 16, 14 },
  { 10, 0.04066868871450424, 7, 10 },
  { 12, -0.16268959641456604, 127, 136 },
  { 6, 0.11307791247963905, 128, 132 },
  { 12, -0.25527726113796234, 129, 130 },
  { 4, -0.010061037261039019, 6, 6 },
  { 1, 124.0, 131, 6 },
  { 13, 0.1317032426595688, 14, 14 },
  { 14, 0.9022251069545746, 133, 10 },
  { 8, -0.007172296172939241, 6, 134 },
  { 10, 0.006538874935358763, 14, 135 },
  { 2, 54.5, 6, 7 },
  { 4, -0.01924680359661579, 16, 137 },
  { 6, 0.13138194009661674, 17, 16 },
  { 2, 15.0, 139, 142 },
  { 10, 0.03453125897794962, 140, 10 },
  { 3, -0.3686251938343048, 7, 141 },
  { 10, 0.005352975567802787, 17, 6 },
  { 3, -0.12089431285858154, 143, 147 },
  { 12, -0.30881282687187195, 144, 14 },
  { 14, 0.4807373285293579, 6, 145 },
  { 11, 0.1428959220647812, 146, 10 },
  { 4, -0.004883572401013225, 6, 7 },
  { 4, -0.016003296710550785, 148, 151 },
  { 0, 9.608940601348877, 149, 16 },
  { 7, 0.01777153881266713, 150, 14 },
  { 11, 0.041251158341765404, 6, 16 },
  { 11, 0.030007021501660347, 17, 6 },
  { 6, 0.2534097731113434, 153, 163 },
  { 10, 0.008746611420065165, 154, 160 },
  { 12, -0.16268959641456604, 155, 158 },
  { 9, 0.054848164319992065, 6, 156 },
  { 14, 0.34576158225536346, 6, 157 },
  { 2, 44.5, 14, 14 },
  { 12, -0.07478652149438858, 159, 17 },
  { 4, -0.021137424744665623, 16, 16 },
  { 2, 62.0, 161, 162 },
  { 12, -0.4825486093759537, 7, 6 },
  { 13, 0.14765587449073792, 6, 7 },
  { 5, 0.19214117527008057, 10, 7 },
  { 14, 0.34658223390579224, 165, 168 },
  { 12, -0.07478652149438858, 166, 17 },
  { 12, -0.17643573880195618, 6, 167 },
  { 1, 27.0, 16, 16 },
  { 14, 0.5590637028217316, 169, 174 },
  { 12, -0.23137516528367996, 170, 173 },
  { 6, 0.06116098538041115, 6, 171 },
  { 8, 0.02568760234862566, 172, 6 },
  { 4, 0.01159886410459876, 6, 6 },
  { 4, -0.04487106017768383, 16, 14 },
  { 13, 0.3103823959827423, 175, 10 },
  { 6, 0.10085976868867874, 6, 176 },
  { 12, -0.43555161356925964, 7, 7 },
  { 13, 0.2760753184556961, 178, 189 },
  { 7, 0.009739371947944164, 179, 182 },
  { 14, 0.2157985121011734, 17, 180 },
  { 6, 0.09105612337589264, 181, 16 },
  { 14, 0.3889901340007782, 14, 6 },
  { 14, 0.5504446625709534, 183, 188 },
  { 13, 0.17562700808048248, 184, 187 },
  { 6, 0.08743009716272354, 185, 186 },
  { 9, 0.06958017870783806, 6, 14 },
  { 7, 0.031880246475338936, 6, 6 },
  { 5, 0.08566209860146046, 14, 6 },
  { 2, 48.5, 6, 7 },
  { 14, 0.8633600771427155, 7, 10 },
  { 3, -0.05639936588704586, 191, 17 },
  { 7, 0.006005737348459661, 192, 194 },
  { 1, 16.0, 10, 193 },
  { 8, -0.009597866563126445, 14, 16 },
  { 11, 0.135709248483181, 195, 10 },
  { 12, -0.43555161356925964, 196, 197 },
  { 6, 0.10085976868867874, 6, 7 },
  { 6, 0.057775139808654785, 14, 198 },
  { 3, -0.06333262287080288, 6, 16 },
  { 9, 0.09113950654864311, 200, 208 },
  { 3, -0.05330210365355015, 201, 17 },
  { 14, 0.3484865874052048, 202, 205 },
  { 1, 27.0, 14, 203 },
  { 14, 0.23084475100040436, 17, 204 },
  { 4, -0.01340403500944376, 16, 14 },
  { 12, -0.3062242418527603, 6, 206 },
  { 10, 0.003643937292508781, 6, 207 },
  { 12, -0.1638026088476181, 14, 16 },
  { 2, 70.0, 209, 211 },
  { 12, -0.5129706859588623, 210, 6 },
  { 3, -0.414991170167923, 10, 7 },
  { 3, -0.43617455661296844, 10, 7 },
  { 7, 0.014746543485671282, 213, 216 },
  { 3, -0.05548747256398201, 214, 17 },
  { 8, -0.0019463517819531262, 6, 215 },
  { 2, 220.5, 16, 14 },
  { 9, 0.20144884288311005, 217, 10 },
  { 13, 0.1335233598947525, 6, 218 },
  { 6, 0.10567674785852432, 219, 220 },
  { 5, 0.0713147409260273, 14, 6 },
  { 3, -0.3475392162799835, 7, 221 },
  { 14, 0.5619293749332428, 6, 6 },
  { 14, 0.23174504935741425, 17, 223 },
  { 3, -0.18880099058151245, 224, 228 },
  { 9, 0.19531119614839554, 225, 10 },
  { 2, 69.5, 226, 7 },
  { 3, -0.33785656094551086, 7, 227 },
  { 6, 0.07742539793252945, 14, 6 },
  { 7, 0.011712698731571436, 229, 230 },
  { 6, 0.08433905802667141, 14, 16 },
  { 11, 0.06427163630723953, 231, 6 },
  { 13, 0.1317032426595688, 6, 14 },
  { 9, 0.20144884288311005, 233, 10 },
  { 3, -0.05072890594601631, 234, 17 },
  { 12, -0.1621829867362976, 235, 240 },
  { 12, -0.4098474085330963, 236, 237 },
  { 7, 0.05689779296517372, 7, 7 },
  { 12, -0.24384868890047073, 238, 239 },
  { 4, -0.02949064690619707, 14, 6 },
  { 4, -0.005992004065774381, 14, 14 },
  { 7, 0.02899441495537758, 16, 14 },
  { 14, 0.5504446625709534, 242, 247 },
  { 3, -0.05548747256398201, 243, 17 },
  { 10, 0.009000321850180626, 244, 6 },
  { 6, 0.11951060593128204, 245, 16 },
  { 11, 0.03950055129826069, 6, 246 },
  { 4, -0.01227973261848092, 14, 14 },
  { 9, 0.20312928408384323, 248, 10 },
  { 4, -0.0038514358457177877, 7, 249 },
  { 6, 0.16786296665668488, 7, 7 },
  { 13, 0.293277382850647, 251, 261 },
  { 12, -0.07033265382051468, 252, 17 },
  { 3, -0.12788597866892815, 253, 258 },
  { 6, 0.08722873777151108, 254, 255 },
  { 2, 24.5, 6, 14 },
  { 9, 0.10985108092427254, 256, 257 },
  { 2, 186.0, 6, 7 },
  { 9, 0.1418023258447647, 6, 7 },
  { 14, 0.34903958439826965, 16, 259 },
  { 5, 0.06224188767373562, 260, 16 },
  { 7, 0.010195623617619276, 6, 14 },
  { 9, 0.18808548897504807, 7, 10 },
  { 3, -0.4268839955329895, 10, 263 },
  { 6, 0.11307791247963905, 264, 270 },
  { 12, -0.30521805584430695, 265, 266 },
  { 12, -0.4386187344789505, 7, 6 },
  { 11, 0.033128051087260246, 267, 268 },
  { 9, 0.04115231893956661, 17, 6 },
  { 14, 0.25679342448711395, 16, 269 },
  { 0, 9.609126567840576, 14, 14 },
  { 7, 0.01634052535519004, 271, 272 },
  { 2, 14.0, 17, 16 },
  { 9, 0.1423264592885971, 273, 7 },
  { 9, 0.12452109903097153, 7, 6 },
  { 9, 0.20144884288311005, 275, 10 },
  { 6, 0.18158452212810516, 276, 282 },
  { 12, -0.07478652149438858, 277, 17 },
  { 6, 0.09292599186301231, 278, 280 },
  { 14, 0.5229560285806656, 279, 7 },
  { 11, 0.03950055129826069, 6, 14 },
  { 8, 0.025286278687417507, 281, 6 },
  { 14, 0.3529438227415085, 16, 6 },
  { 11, 0.08573585748672485, 16, 7 },
  { 12, -0.07478652149438858, 284, 17 },
  { 9, 0.20144884288311005, 285, 10 },
  { 10, 0.008253947831690311, 286, 290 },
  { 7, 0.006005737348459661, 287, 288 },
  { 14, 0.3549763560295105, 16, 14 },
  { 11, 0.06396141275763512, 289, 6 },
  { 12, -0.11955900490283966, 14, 16 },
  { 12, -0.4377187341451645, 291, 292 },
  { 13, 0.11611346900463104, 6, 7 },
  { 10, 0.008836226537823677, 7, 293 },
  { 0, 9.60898733139038, 6, 6 },
  { 10, 0.04066868871450424, 295, 10 },
  { 9, 0.10985108092427254, 296, 302 },
  { 9, 0.048529479652643204, 297, 298 },
  { 4, -0.01737632416188717, 16, 17 },
  { 6, 0.11652211099863052, 299, 301 },
  { 11, 0.07162418588995934, 300, 6 },
  { 11, 0.033128051087260246, 6, 14 },
  { 3, -0.1315954439342022, 6, 16 },
  { 13, 0.11995605379343033, 6, 7 },
  { 14, 0.3287966549396515, 304, 307 },
  { 3, -0.04749199002981186, 305, 17 },
  { 4, -0.015649891924113035, 306, 14 },
  { 12, -0.14103640615940094, 14, 16 },
  { 3, -0.4279989004135132, 10, 308 },
  { 13, 0.1860167235136032, 309, 313 },
  { 11, 0.0696873888373375, 310, 312 },
  { 10, 0.007316941861063242, 311, 7 },
  { 7, 0.03961760178208351, 6, 14 },
  { 13, 0.14765587449073792, 6, 6 },
  { 11, 0.09090042859315872, 314, 7 },
  { 6, 0.14023474603891373, 14, 6 },
  { 10, 0.013043069746345282, 316, 322 },
  { 14, 0.19923032075166702, 17, 317 },
  { 4, -0.03398205526173115, 16, 318 },
  { 14, 0.3310733288526535, 319, 320 },
  { 14, 0.2606366127729416, 16, 14 },
  { 12, -0.29426679015159607, 6, 321 },
  { 2, 53.0, 14, 6 },
  { 10, 0.04066868871450424, 323, 10 },
  { 5, 0.07635090127587318, 6, 324 },
  { 2, 54.5, 6, 7 },
  { 11, 0.135709248483181, 326, 10 },
  { 11, 0.07147025689482689, 327, 333 },
  { 9, 0.04533154331147671, 328, 329 },
  { 8, 0.005662273964844644, 16, 17 },
  { 4, -0.021137424744665623, 330, 331 },
  { 12, -0.17422406375408173, 14, 16 },
  { 1, 123.0, 332, 6 },
  { 12, -0.24929044395685196, 6, 14 },
  { 12, -0.49554553627967834, 7, 334 },
  { 14, 0.6663307547569275, 335, 7 },
  { 2, 105.5, 6, 6 },
  { 6, 0.24593743681907654, 337, 347 },
  { 3, -0.1176164448261261, 338, 345 },
  { 14, 0.5806885063648224, 339, 344 },
  { 12, -0.26456068456172943, 340, 342 },
  { 14, 0.5504446625709534, 341, 6 },
  { 12, -0.3451200872659683, 6, 6 },
  { 3, -0.12788597866892815, 343, 6 },
  { 4, -0.005622425116598606, 14, 6 },
  { 2, 31.0, 6, 7 },
  { 4, -0.02153508085757494, 16, 346 },
  { 3, -0.06105966120958328, 14, 17 },
  { 9, 0.20144884288311005, 7, 10 },
  { 4, -0.016003296710550785, 349, 354 },
  { 8, 0.0030340866651386023, 350, 352 },
  { 14, 0.348677322268486, 16, 351 },
  { 4, -0.03813165798783302, 10, 14 },
  { 3, -0.13844581320881844, 14, 353 },
  { 7, 0.01714957132935524, 16, 16 },
  { 9, 0.05192326568067074, 17, 355 },
  { 12, -0.4377187341451645, 356, 358 },
  { 10, 0.04066868871450424, 357, 10 },
  { 5, 0.07635090127587318, 6, 7 },
  { 3, -0.13904519379138947, 359, 14 },
  { 12, -0.20234931260347366, 360, 14 },
  { 14, 0.5728012919425964, 6, 6 },
  { 9, 0.09113950654864311, 362, 366 },
  { 7, 0.020120549015700817, 363, 14 },
  { 12, -0.0794537179172039, 364, 17 },
  { 12, -0.17220709472894669, 365, 16 },
  { 2, 134.5, 6, 14 },
  { 11, 0.1291743442416191, 367, 371 },
  { 9, 0.1418023258447647, 368, 370 },
  { 4, 0.010685140267014503, 6, 369 },
  { 9, 0.13641394674777985, 7, 6 },
  { 5, 0.11399761959910393, 7, 7 },
  { 7, 0.11288460716605186, 10, 7 },
  { 12, -0.43555161356925964, 373, 374 },
  { 3, -0.4279989004135132, 10, 7 },
  { 14, 0.34903958439826965, 375, 378 },
  { 14, 0.19923032075166702, 17, 376 },
  { 0, 9.608754634857178, 14, 377 },
  { 9, 0.06175578758120537, 16, 16 },
  { 11, 0.06253433786332607, 379, 381 },
  { 12, -0.2444981262087822, 380, 14 },
  { 8, -0.0034222108079120517, 14, 6 },
  { 5, 0.06106692738831043, 7, 382 },
  { 7, 0.0025461595505476, 16, 383 },
  { 5, 0.07020660862326622, 6, 6 },
  { 9, 0.20213069021701813, 385, 10 },
  { 3, -0.11009350791573524, 386, 392 },
  { 14, 0.5806885063648224, 387, 391 },
  { 12, -0.24993988126516342, 388, 390 },
  { 7, -0.0038645591703243554, 14, 389 },
  { 4, -0.028975187800824642, 14, 6 },
  { 1, 86.0, 14, 6 },
  { 12, -0.43555161356925964, 7, 6 },
  { 4, -0.021137424744665623, 16, 393 },
  { 10, 0.0026960279792547226, 394, 395 },
  { 12, -0.10831812024116516, 14, 17 },
  { 14, 0.33892177045345306, 16, 396 },
  { 12, -0.23450453579425812, 6, 14 },
  { 14, 0.2157985121011734, 17, 398 },
  { 12, -0.16268959641456604, 399, 407 },
  { 14, 0.5619293749332428, 400, 405 },
  { 5, 0.04091677628457546, 401, 403 },
  { 2, 278.0, 402, 6 },
  { 2, 44.5, 14, 14 },
  { 9, 0.0632862076163292, 14, 404 },
  { 0, 9.609033584594727, 6, 6 },
  { 6, 0.24593743681907654, 406, 10 },
  { 5, 0.11773491650819778, 7, 7 },
  { 12, -0.13673298805952072, 16, 16 },
  { 12, -0.16268959641456604, 409, 417 },
  { 14, 0.6473888456821442, 410, 416 },
  { 0, 9.608707904815674, 14, 411 },
  { 12, -0.30269356071949005, 412, 414 },
  { 5, 0.06932950764894485, 413, 6 },
  { 14, 0.4852757304906845, 6, 7 },
  { 11, 0.04763074219226837, 415, 6 },
  { 14, 0.3530564308166504, 6, 14 },
  { 9, 0.20144884288311005, 7, 10 },
  { 12, -0.07478652149438858, 16, 17 },
  { 9, 0.20144884288311005, 419, 10 },
  { 12, -0.16268959641456604, 420, 426 },
  { 6, 0.12944432348012924, 421, 425 },
  { 13, 0.187192901968956, 422, 14 },
  { 1, 40.5, 423, 424 },
  { 14, 0.384274423122406, 14, 6 },
  { 13, 0.16626392304897308, 6, 14 },
  { 13, 0.20444318652153015, 7, 7 },
  { 11, 0.03474349528551102, 427, 16 },
  { 1, 275.5, 17, 17 },
  { 10, 0.03675061836838722, 429, 10 },
  { 11, 0.03669491596519947, 430, 431 },
  { 3, -0.0729178749024868, 14, 17 },
  { 14, 0.3917572647333145, 432, 434 },
  { 12, -0.16268959641456604, 433, 16 },
  { 7, 0.024148380383849144, 14, 14 },
  { 12, -0.4377187341451645, 435, 436 },
  { 2, 28.5, 6, 7 },
  { 12, -0.24929044395685196, 437, 14 },
  { 2, 117.0, 6, 7 },
  { 4, -0.01737632416188717, 439, 445 },
  { 8, 0.0030340866651386023, 440, 444 },
  { 10, 0.010266641154885292, 441, 10 },
  { 3, -0.07937229424715042, 442, 16 },
  { 14, 0.44450850784778595, 443, 14 },
  { 14, 0.39336465299129486, 14, 6 },
  { 6, 0.08935636281967163, 14, 16 },
  { 13, 0.293277382850647, 446, 10 },
  { 12, -0.1287926882505417, 447, 17 },
  { 9, 0.10983733087778091, 448, 7 },
  { 3, -0.14346842467784882, 6, 449 },
  { 10, 0.0030085386242717505, 6, 14 },
  { 9, 0.05312788672745228, 451, 452 },
  { 3, -0.0607433095574379, 6, 17 },
  { 14, 0.5504446625709534, 453, 459 },
  { 3, -0.12089431285858154, 454, 457 },
  { 11, 0.06396141275763512, 455, 456 },
  { 9, 0.06624651327729225, 6, 14 },
  { 0, 9.609219551086426, 6, 6 },
  { 9, 0.0673803761601448, 458, 16 },
  { 13, 0.16930509358644485, 16, 14 },
  { 10, 0.038075296208262444, 460, 10 },
  { 2, 48.5, 7, 7 },
  { 9, 0.05192326568067074, 462, 464 },
  { 5, 0.04825342632830143, 463, 16 },
  { 13, 0.15529556572437286, 17, 14 },
  { 9, 0.19363075494766235, 465, 10 },
  { 14, 0.5619293749332428, 466, 471 },
  { 4, -0.03576189465820789, 467, 469 },
  { 5, 0.07245216146111488, 468, 6 },
  { 8, -0.003623437136411667, 14, 16 },
  { 11, 0.07162418588995934, 470, 6 },
  { 6, 0.10567674785852432, 14, 6 },
  { 5, 0.11773491650819778, 7, 6 },
  { 3, -0.11714291572570801, 473, 479 },
  { 10, 0.04066868871450424, 474, 10 },
  { 6, 0.13091054558753967, 475, 478 },
  { 13, 0.1926746368408203, 476, 14 },
  { 4, -0.03127048630267382, 14, 477 },
  { 14, 0.5504446625709534, 6, 7 },
  { 2, 11.5, 6, 7 },
  { 12, -0.07478652149438858, 480, 17 },
  { 7, 0.011712698731571436, 16, 14 },
  { 11, 0.135709248483181, 482, 493 },
  { 3, -0.05330210365355015, 483, 17 },
  { 10, 0.010125161614269018, 484, 489 },
  { 7, 0.011712698731571436, 485, 487 },
  { 6, 0.09022186696529388, 14, 486 },
  { 2, 14.0, 17, 16 },
  { 3, -0.06300845183432102, 488, 16 },
  { 10, 0.006276322528719902, 14, 6 },
  { 3, -0.3276977986097336, 490, 491 },
  { 1, 37.5, 7, 7 },
  { 12, -0.4117709845304489, 492, 6 },
  { 14, 0.5806885063648224, 6, 7 },
  { 14, 0.8840296566486359, 7, 10 },
  { 14, 0.2157985121011734, 17, 495 },
  { 13, 0.30662068724632263, 496, 10 },
  { 10, 0.010125161614269018, 497, 503 },
  { 7, 0.005151829274836928, 498, 500 },
  { 8, -0.01050612865947187, 14, 499 },
  { 3, -0.11714291572570801, 6, 16 },
  { 11, 0.05221429467201233, 501, 502 },
  { 4, -0.002093569957651198, 14, 14 },
  { 4, -0.01803216664120555, 14, 6 },
  { 6, 0.18158452212810516, 504, 506 },
  { 12, -0.4377187341451645, 7, 505 },
  { 4, 0.011282998137176037, 6, 7 },
  { 6, 0.24593743681907654, 7, 7 },
  { 14, 0.5504446625709534, 508, 514 },
  { 3, -0.05548747256398201, 509, 17 },
  { 9, 0.10058973357081413, 510, 6 },
  { 6, 0.11951060593128204, 511, 513 },
  { 5, 0.07388287037611008, 512, 6 },
  { 6, 0.09292599186301231, 14, 14 },
  { 4, -0.01481551630422473, 16, 6 },
  { 14, 0.9055360555648804, 515, 10 },
  { 9, 0.20144884288311005, 516, 10 },
  { 12, -0.4080895334482193, 7, 6 },
  { 12, -0.16268959641456604, 518, 523 },
  { 11, 0.12885524332523346, 519, 10 },
  { 14, 0.5699356198310852, 520, 7 },
  { 0, 9.608707904815674, 14, 521 },
  { 9, 0.10058973357081413, 522, 6 },
  { 12, -0.23137516528367996, 6, 14 },
  { 12, -0.0794537179172039, 524, 17 },
  { 7, 0.022059082984924316, 16, 14 },
  { 6, 0.24753690510988235, 526, 10 },
  { 3, -0.05330210365355015, 527, 17 },
  { 10, 0.010125161614269018, 528, 533 },
  { 14, 0.3411911427974701, 529, 531 },
  { 6, 0.07572386600077152, 14, 530 },
  { 3, -0.05639936588704586, 16, 17 },
  { 7, -0.007814875105395913, 16, 532 },
  { 4, -0.004045839188620448, 14, 6 },
  { 10, 0.012442493345588446, 6, 534 },
  { 14, 0.5590637028217316, 6, 535 },
  { 12, -0.43555161356925964, 7, 7 },
  { 11, 0.135709248483181, 537, 10 },
  { 9, 0.05312788672745228, 538, 539 },
  { 0, 9.609126567840576, 17, 16 },
  { 12, -0.16268959641456604, 540, 16 },
  { 10, 0.02441485971212387, 541, 7 },
  { 3, -0.18880099058151245, 542, 543 },
  { 5, 0.06811853125691414, 6, 6 },
  { 12, -0.2444981262087822, 6, 14 },
  { 14, 0.8840296566486359, 545, 554 },
  { 9, 0.09318877384066582, 546, 551 },
  { 6, 0.1096530631184578, 547, 550 },
  { 14, 0.18782250583171844, 17, 548 },
  { 10, 0.002178756636567414, 16, 549 },
  { 10, 0.004041927633807063, 14, 6 },
  { 9, 0.05439389497041702, 17, 16 },
  { 12, -0.440717488527298, 552, 553 },
  { 8, -0.011774726677685976, 6, 7 },
  { 2, 32.5, 6, 6 },
  { 14, 0.8964848518371582, 7, 10 },
  { 10, 0.0028753278311342, 556, 557 },
  { 0, 9.609126567840576, 17, 16 },
  { 11, 0.07122766599059105, 558, 563 },
  { 7, 0.0034754479420371354, 559, 560 },
  { 12, -0.20283028483390808, 14, 16 },
  { 3, -0.1514601930975914, 6, 561 },
  { 0, 9.608754634857178, 14, 562 },
  { 0, 9.609126567840576, 6, 14 },
  { 3, -0.4286845922470093, 10, 564 },
  { 14, 0.5806885063648224, 6, 565 },
  { 7, 0.05993865616619587, 7, 6 },
  { 10, 0.038075296208262444, 567, 10 },
  { 3, -0.09946916624903679, 568, 576 },
  { 11, 0.07151158154010773, 569, 574 },
  { 12, -0.25438520312309265, 570, 572 },
  { 9, 0.10809232667088509, 571, 7 },
  { 13, 0.1849476546049118, 6, 14 },
  { 12, -0.19095706194639206, 573, 6 },
  { 14, 0.3452085852622986, 6, 14 },
  { 14, 0.5806885063648224, 6, 575 },
  { 14, 0.629628598690033, 7, 7 },
  { 3, -0.05330210365355015, 577, 17 },
  { 0, 9.608847618103027, 14, 16 },
  { 3, -0.4416923224925995, 10, 579 },
  { 9, 0.13307677954435349, 580, 587 },
  { 3, -0.05639936588704586, 581, 586 },
  { 7, 0.004628437221981585, 582, 583 },
  { 8, -0.012314718158449978, 14, 16 },
  { 12, -0.24553026258945465, 584, 585 },
  { 13, 0.1335233598947525, 6, 6 },
  { 5, 0.07164708524942398, 14, 16 },
  { 12, -0.07478652149438858, 16, 17 },
  { 7, 0.05993865616619587, 7, 6 },
  { 11, 0.0967201255261898, 589, 597 },
  { 11, 0.02980083040893078, 17, 590 },
  { 12, -0.16480056196451187, 591, 595 },
  { 11, 0.06427163630723953, 592, 594 },
  { 4, -0.005622425116598606, 593, 6 },
  { 7, 0.01709524728357792, 14, 14 },
  { 2, 75.0, 6, 7 },
  { 6, 0.09213092178106308, 14, 596 },
  { 0, 9.608661651611328, 17, 16 },
  { 9, 0.20144884288311005, 598, 10 },
  { 12, -0.42895932495594025, 7, 6 },
  { 10, 0.03772132843732834, 600, 10 },
  { 14, 0.3387337923049927, 601, 603 },
  { 9, 0.0537397675216198, 602, 16 },
  { 1, 94.0, 14, 17 },
  { 12, -0.30269356071949005, 604, 608 },
  { 3, -0.28409796953201294, 605, 607 },
  { 13, 0.11611346900463104, 6, 606 },
  { 14, 0.6473888456821442, 7, 7 },
  { 11, 0.06771334633231163, 6, 6 },
  { 1, 85.5, 609, 610 },
  { 11, 0.06427163630723953, 14, 14 },
  { 8, -0.01266401947941631, 14, 611 },
  { 14, 0.39336465299129486, 14, 6 },
  { 10, 0.04095705412328243, 613, 10 },
  { 14, 0.5820871591567993, 614, 7 },
  { 7, 0.007992187514901161, 615, 618 },
  { 3, -0.06022406741976738, 616, 17 },
  { 8, -0.009597866563126445, 14, 617 },
  { 6, 0.08433905802667141, 6, 16 },
  { 3, -0.08920169621706009, 619, 622 },
  { 7, 0.031880246475338936, 620, 621 },
  { 1, 89.0, 14, 6 },
  { 10, 0.005822391714900732, 14, 6 },
  { 13, 0.17051881551742554, 17, 14 },
  { 6, 0.24593743681907654, 624, 10 },
  { 1, 136.0, 625, 632 },
  { 6, 0.12944432348012924, 626, 631 },
  { 4, -0.01029602950438857, 627, 629 },
  { 6, 0.09617115184664726, 628, 16 },
  { 14, 0.4803198426961899, 14, 14 },
  { 3, -0.10461891815066338, 630, 14 },
  { 6, 0.11307791247963905, 6, 6 },
  { 11, 0.07147025689482689, 16, 7 },
  { 14, 0.24704580008983612, 17, 633 },
  { 14, 0.3448585420846939, 16, 6 },
  { 10, 0.03778693079948425, 635, 10 },
  { 9, 0.10983733087778091, 636, 643 },
  { 14, 0.3411911427974701, 637, 640 },
  { 6, 0.10050532594323158, 638, 639 },
  { 12, -0.07258491776883602, 14, 17 },
  { 12, -0.07478652149438858, 16, 17 },
  { 10, 0.009690802078694105, 641, 6 },
  { 11, 0.033128051087260246, 6, 642 },
  { 7, -0.007814875105395913, 16, 14 },
  { 2, 29.5, 6, 644 },
  { 13, 0.16103030741214752, 7, 7 },
  { 12, -0.16268959641456604, 646, 655 },
  { 9, 0.0984407402575016, 647, 650 },
  { 1, 16.0, 7, 648 },
  { 4, -0.005622425116598606, 649, 6 },
  { 11, 0.042986614629626274, 14, 14 },
  { 14, 0.8818411827087402, 651, 10 },
  { 14, 0.5806885063648224, 652, 654 },
  { 1, 50.0, 653, 6 },
  { 6, 0.1213860884308815, 7, 6 },
  { 11, 0.1257268264889717, 7, 6 },
  { 10, 0.0028480974724516273, 656, 16 },
  { 7, 0.018781396560370922, 17, 14 },
  { 10, 0.03778693079948425, 658, 10 },
  { 4, -0.012214728631079197, 659, 666 },
  { 8, 0.0038567319279536605, 660, 663 },
  { 12, -0.15509659051895142, 661, 16 },
  { 6, 0.08018598333001137, 662, 14 },
  { 6, 0.047736503183841705, 14, 14 },
  { 6, 0.09183434396982193, 14, 664 },
  { 14, 0.4294836223125458, 665, 7 },
  { 4, -0.017000641208142042, 16, 14 },
  { 2, 107.0, 667, 670 },
  { 14, 0.2567705288529396, 17, 668 },
  { 10, 0.024566153064370155, 669, 7 },
  { 9, 0.059455523267388344, 14, 6 },
  { 9, 0.07107456587255001, 17, 7 },
  { 9, 0.10983733087778091, 672, 680 },
  { 3, -0.05676845647394657, 673, 679 },
  { 14, 0.3387337923049927, 674, 675 },
  { 0, 9.608754634857178, 14, 16 },
  { 5, 0.0713147409260273, 676, 6 },
  { 13, 0.1735447272658348, 677, 678 },
  { 0, 9.608521938323975, 14, 6 },
  { 5, 0.06224188767373562, 14, 16 },
  { 7, 0.018781396560370922, 17, 16 },
  { 12, -0.6297503411769867, 10, 681 },
  { 13, 0.18226538598537445, 682, 683 },
  { 12, -0.43555161356925964, 7, 6 },
  { 11, 0.14269645512104034, 7, 10 },
  { 12, -0.07478652149438858, 685, 17 },
  { 4, -0.012214728631079197, 686, 691 },
  { 11, 0.07490529492497444, 687, 6 },
  { 8, 0.0038567319279536605, 688, 689 },
  { 14, 0.4286321699619293, 14, 14 },
  { 12, -0.17422406375408173, 14, 690 },
  { 7, 0.02899441495537758, 16, 14 },
  { 9, 0.20144884288311005, 692, 10 },
  { 11, 0.0967201255261898, 693, 695 },
  { 7, 0.036135440692305565, 694, 6 },
  { 14, 0.5322968363761902, 6, 7 },
  { 0, 9.609219551086426, 7, 7 },
  { 7, 0.009789727162569761, 697, 700 },
  { 4, -0.016733299009501934, 698, 699 },
  { 14, 0.3714200258255005, 16, 6 },
  { 8, 0.006623484194278717, 6, 17 },
  { 10, 0.04066868871450424, 701, 10 },
  { 10, 0.006351981079205871, 702, 705 },
  { 5, 0.06195745803415775, 703, 16 },
  { 13, 0.1317032426595688, 14, 704 },
  { 7, 0.010963774751871824, 6, 14 },
  { 3, -0.3276977986097336, 7, 706 },
  { 2, 88.5, 707, 7 },
  { 13, 0.2018570452928543, 6, 14 },
  { 14, 0.1905328556895256, 17, 709 },
  { 11, 0.06996108219027519, 710, 716 },
  { 1, 122.0, 711, 715 },
  { 14, 0.3237720876932144, 712, 713 },
  { 1, 109.5, 16, 14 },
  { 14, 0.34576158225536346, 6, 714 },
  { 7, -0.007814875105395913, 16, 14 },
  { 13, 0.09879757091403008, 14, 16 },
  { 14, 0.5619293749332428, 6, 717 },
  { 13, 0.3054155111312866, 7, 10 },
  { 12, -0.0794537179172039, 719, 17 },
  { 3, -0.2787967771291733, 720, 724 },
  { 5, 0.11760002374649048, 721, 723 },
  { 9, 0.1980549693107605, 722, 10 },
  { 13, 0.09788353741168976, 6, 7 },
  { 3, -0.4268839955329895, 10, 6 },
  { 3, -0.07783898338675499, 725, 16 },
  { 10, 0.007030999520793557, 726, 728 },
  { 12, -0.1621829867362976, 727, 16 },
  { 14, 0.39471083879470825, 14, 14 },
  { 6, 0.08018598333001137, 14, 729 },
  { 10, 0.009524296503514051, 6, 6 },
  { 12, -0.13988616317510605, 731, 739 },
  { 6, 0.12940287590026855, 732, 737 },
  { 12, -0.25438520312309265, 733, 735 },
  { 8, -0.0027775460621342063, 6, 734 },
  { 6, 0.11501412838697433, 6, 7 },
  { 10, 0.006351981079205871, 736, 6 },
  { 10, 0.0030085386242717505, 14, 14 },
  { 10, 0.04066868871450424, 738, 10 },
  { 12, -0.4117709845304489, 7, 6 },
  { 12, -0.07033265382051468, 16, 17 },
  { 12, -0.16480056196451187, 741, 748 },
  { 3, -0.29133470356464386, 742, 744 },
  { 6, 0.25193895399570465, 743, 10 },
  { 9, 0.1418023258447647, 7, 7 },
  { 12, -0.2444981262087822, 745, 747 },
  { 10, 0.004169955383986235, 6, 746 },
  { 7, 0.0322550144046545, 6, 6 },
  { 0, 9.609126567840576, 14, 14 },
  { 14, 0.2157985121011734, 749, 750 },
  { 12, -0.07478652149438858, 16, 17 },
  { 10, 0.0028134891763329506, 14, 16 },
  { 3, -0.05676845647394657, 752, 760 },
  { 13, 0.31031982600688934, 753, 10 },
  { 9, 0.09084786474704742, 754, 758 },
  { 7, 0.005061494981418946, 755, 756 },
  { 3, -0.14351121708750725, 14, 16 },
  { 1, 119.5, 757, 6 },
  { 1, 10.0, 6, 14 },
  { 12, -0.4386187344789505, 7, 759 },
  { 5, 0.06106692738831043, 7, 6 },
  { 7, 0.018781396560370922, 17, 16 },
  { 5, 0.13498550653457642, 762, 772 },
  { 11, 0.03715065121650696, 763, 764 },
  { 3, -0.0607433095574379, 6, 17 },
  { 11, 0.07123788818717003, 765, 770 },
  { 3, -0.10668367892503738, 766, 768 },
  { 9, 0.07837125658988953, 767, 6 },
  { 13, 0.14738700538873672, 6, 14 },
  { 10, 0.0030758376233279705, 14, 769 },
  { 7, 0.01777153881266713, 16, 14 },
  { 9, 0.1559528186917305, 771, 7 },
  { 2, 90.0, 6, 7 },
  { 14, 0.8840296566486359, 7, 10 },
  { 10, 0.03772132843732834, 774, 10 },
  { 12, -0.15824976563453674, 775, 782 },
  { 9, 0.10983733087778091, 776, 780 },
  { 9, 0.07626483961939812, 777, 779 },
  { 6, 0.0755184181034565, 778, 14 },
  { 13, 0.14301126450300217, 6, 14 },
  { 10, 0.009089936967939138, 6, 6 },
  { 8, -0.010017541237175465, 6, 781 },
  { 7, 0.05874446593225002, 7, 6 },
  { 9, 0.0537397675216198, 783, 16 },
  { 14, 0.2157985121011734, 17, 16 } 
};

int32_t rf_model_tree_roots[70] = { 0, 18, 28, 38, 48, 60, 72, 82, 93, 103, 116, 126, 138, 152, 164, 177, 190, 199, 212, 222, 232, 241, 250, 262, 274, 283, 294, 303, 315, 325, 336, 348, 361, 372, 384, 397, 408, 418, 428, 438, 450, 461, 472, 481, 494, 507, 517, 525, 536, 544, 555, 566, 578, 588, 599, 612, 623, 634, 645, 657, 671, 684, 696, 708, 718, 730, 740, 751, 761, 773 };

EmlTrees rf_model = {
        784,
        rf_model_nodes,	  
        70,
        rf_model_tree_roots,
    };

static inline int32_t rf_model_predict_tree_0(const float *features, int32_t features_length) {
          if (features[12] < -0.16587115079164505) {
              if (features[12] < -0.30269356071949005) {
                  if (features[13] < 0.3099822998046875) {
                      if (features[9] < 0.1418023258447647) {
                          if (features[2] < 186.0) {
                              if (features[1] < 40.5) {
                                  return 1;
                              } else {
                                  return 1;
                              }
                          } else {
                              return 4;
                          }
                      } else {
                          if (features[9] < 0.20312928408384323) {
                              if (features[12] < -0.44867701828479767) {
                                  return 4;
                              } else {
                                  return 1;
                              }
                          } else {
                              return 5;
                          }
                      }
                  } else {
                      return 5;
                  }
              } else {
                  if (features[12] < -0.18731345981359482) {
                      if (features[6] < 0.10337705537676811) {
                          if (features[11] < 0.03948398679494858) {
                              return 0;
                          } else {
                              return 0;
                          }
                      } else {
                          return 1;
                      }
                  } else {
                      return 1;
                  }
              }
          } else {
              if (features[3] < -0.05639936588704586) {
                  return 3;
              } else {
                  return 2;
              }
          }
        }
        

static inline int32_t rf_model_predict_tree_1(const float *features, int32_t features_length) {
          if (features[12] < -0.16480056196451187) {
              if (features[13] < 0.30662068724632263) {
                  if (features[10] < 0.02187756448984146) {
                      if (features[12] < -0.2288595214486122) {
                          if (features[14] < 0.5820871591567993) {
                              if (features[4] < -0.02949064690619707) {
                                  return 0;
                              } else {
                                  return 1;
                              }
                          } else {
                              return 4;
                          }
                      } else {
                          if (features[11] < 0.037478331476449966) {
                              return 1;
                          } else {
                              return 0;
                          }
                      }
                  } else {
                      return 4;
                  }
              } else {
                  return 5;
              }
          } else {
              if (features[14] < 0.2157985121011734) {
                  if (features[3] < -0.05330210365355015) {
                      return 2;
                  } else {
                      return 2;
                  }
              } else {
                  if (features[6] < 0.07572386600077152) {
                      return 0;
                  } else {
                      return 3;
                  }
              }
          }
        }
        

static inline int32_t rf_model_predict_tree_2(const float *features, int32_t features_length) {
          if (features[3] < -0.05548747256398201) {
              if (features[12] < -0.16268959641456604) {
                  if (features[13] < 0.30662068724632263) {
                      if (features[6] < 0.11501412838697433) {
                          if (features[13] < 0.14166966825723648) {
                              return 1;
                          } else {
                              if (features[12] < -0.2444981262087822) {
                                  return 1;
                              } else {
                                  return 0;
                              }
                          }
                      } else {
                          if (features[9] < 0.1402362585067749) {
                              if (features[12] < -0.3370903581380844) {
                                  return 4;
                              } else {
                                  return 1;
                              }
                          } else {
                              if (features[14] < 0.9022251069545746) {
                                  return 4;
                              } else {
                                  return 5;
                              }
                          }
                      }
                  } else {
                      return 5;
                  }
              } else {
                  if (features[11] < 0.04679709114134312) {
                      return 0;
                  } else {
                      return 3;
                  }
              }
          } else {
              return 2;
          }
        }
        

static inline int32_t rf_model_predict_tree_3(const float *features, int32_t features_length) {
          if (features[12] < -0.4377187341451645) {
              if (features[10] < 0.03778693079948425) {
                  return 4;
              } else {
                  return 5;
              }
          } else {
              if (features[3] < -0.05996716022491455) {
                  if (features[14] < 0.3387337923049927) {
                      if (features[3] < -0.1297014020383358) {
                          return 0;
                      } else {
                          if (features[1] < 30.5) {
                              return 0;
                          } else {
                              return 3;
                          }
                      }
                  } else {
                      if (features[9] < 0.1012706384062767) {
                          if (features[7] < 0.010963774751871824) {
                              return 1;
                          } else {
                              if (features[5] < 0.07745353877544403) {
                                  return 0;
                              } else {
                                  return 1;
                              }
                          }
                      } else {
                          if (features[3] < -0.29133470356464386) {
                              return 1;
                          } else {
                              return 1;
                          }
                      }
                  }
              } else {
                  return 2;
              }
          }
        }
        

static inline int32_t rf_model_predict_tree_4(const float *features, int32_t features_length) {
          if (features[5] < 0.01832117699086666) {
              if (features[14] < 0.2157985121011734) {
                  return 2;
              } else {
                  return 3;
              }
          } else {
              if (features[7] < -0.0013232830096967518) {
                  if (features[14] < 0.22042665630578995) {
                      return 2;
                  } else {
                      if (features[6] < 0.08003082498908043) {
                          return 0;
                      } else {
                          return 3;
                      }
                  }
              } else {
                  if (features[9] < 0.20312928408384323) {
                      if (features[3] < -0.28409796953201294) {
                          if (features[13] < 0.13716360926628113) {
                              return 1;
                          } else {
                              if (features[5] < 0.11773491650819778) {
                                  return 4;
                              } else {
                                  return 4;
                              }
                          }
                      } else {
                          if (features[14] < 0.45119327306747437) {
                              if (features[4] < -0.01227973261848092) {
                                  return 0;
                              } else {
                                  return 1;
                              }
                          } else {
                              if (features[14] < 0.5728012919425964) {
                                  return 1;
                              } else {
                                  return 4;
                              }
                          }
                      }
                  } else {
                      return 5;
                  }
              }
          }
        }
        

static inline int32_t rf_model_predict_tree_5(const float *features, int32_t features_length) {
          if (features[10] < 0.03778693079948425) {
              if (features[9] < 0.04115231893956661) {
                  return 2;
              } else {
                  if (features[3] < -0.12089431285858154) {
                      if (features[5] < 0.06475081667304039) {
                          if (features[10] < 0.009690802078694105) {
                              if (features[12] < -0.3109750598669052) {
                                  return 1;
                              } else {
                                  return 0;
                              }
                          } else {
                              return 1;
                          }
                      } else {
                          if (features[8] < 0.020656109787523746) {
                              if (features[2] < 47.0) {
                                  return 1;
                              } else {
                                  return 4;
                              }
                          } else {
                              return 1;
                          }
                      }
                  } else {
                      if (features[4] < -0.015649891924113035) {
                          if (features[11] < 0.051234371960163116) {
                              if (features[14] < 0.2909906357526779) {
                                  return 3;
                              } else {
                                  return 0;
                              }
                          } else {
                              return 3;
                          }
                      } else {
                          if (features[5] < 0.01744041219353676) {
                              return 2;
                          } else {
                              return 0;
                          }
                      }
                  }
              }
          } else {
              return 5;
          }
        }
        

static inline int32_t rf_model_predict_tree_6(const float *features, int32_t features_length) {
          if (features[9] < 0.19363075494766235) {
              if (features[12] < -0.27682332694530487) {
                  if (features[9] < 0.1418023258447647) {
                      if (features[2] < 69.5) {
                          if (features[9] < 0.0984407402575016) {
                              return 1;
                          } else {
                              return 1;
                          }
                      } else {
                          if (features[13] < 0.09534836560487747) {
                              return 1;
                          } else {
                              return 4;
                          }
                      }
                  } else {
                      return 4;
                  }
              } else {
                  if (features[12] < -0.0794537179172039) {
                      if (features[7] < 0.011764275375753641) {
                          if (features[4] < -0.00896847469266504) {
                              return 3;
                          } else {
                              return 1;
                          }
                      } else {
                          if (features[0] < 9.609126567840576) {
                              return 0;
                          } else {
                              return 0;
                          }
                      }
                  } else {
                      return 2;
                  }
              }
          } else {
              return 5;
          }
        }
        

static inline int32_t rf_model_predict_tree_7(const float *features, int32_t features_length) {
          if (features[10] < 0.04095705412328243) {
              if (features[3] < -0.10968370735645294) {
                  if (features[6] < 0.12940287590026855) {
                      if (features[10] < 0.006142181111499667) {
                          if (features[10] < 0.003510033478960395) {
                              return 1;
                          } else {
                              if (features[14] < 0.4286321699619293) {
                                  return 0;
                              } else {
                                  return 0;
                              }
                          }
                      } else {
                          if (features[7] < 0.02114291861653328) {
                              return 1;
                          } else {
                              if (features[2] < 69.5) {
                                  return 1;
                              } else {
                                  return 4;
                              }
                          }
                      }
                  } else {
                      return 4;
                  }
              } else {
                  if (features[13] < 0.14176487922668457) {
                      return 2;
                  } else {
                      if (features[7] < 0.011764275375753641) {
                          if (features[5] < 0.02450666856020689) {
                              return 3;
                          } else {
                              return 3;
                          }
                      } else {
                          return 0;
                      }
                  }
              }
          } else {
              return 5;
          }
        }
        

static inline int32_t rf_model_predict_tree_8(const float *features, int32_t features_length) {
          if (features[3] < -0.4268839955329895) {
              return 5;
          } else {
              if (features[3] < -0.11714291572570801) {
                  if (features[14] < 0.5806885063648224) {
                      if (features[0] < 9.608754634857178) {
                          return 0;
                      } else {
                          if (features[11] < 0.06996108219027519) {
                              if (features[14] < 0.48274514079093933) {
                                  return 1;
                              } else {
                                  return 0;
                              }
                          } else {
                              if (features[1] < 5.0) {
                                  return 1;
                              } else {
                                  return 1;
                              }
                          }
                      }
                  } else {
                      return 4;
                  }
              } else {
                  if (features[14] < 0.2157985121011734) {
                      if (features[11] < 0.03920779936015606) {
                          return 2;
                      } else {
                          return 3;
                      }
                  } else {
                      if (features[14] < 0.35593707859516144) {
                          return 3;
                      } else {
                          return 0;
                      }
                  }
              }
          }
        }
        

static inline int32_t rf_model_predict_tree_9(const float *features, int32_t features_length) {
          if (features[6] < 0.24593743681907654) {
              if (features[6] < 0.0852755531668663) {
                  if (features[6] < 0.0544715728610754) {
                      return 0;
                  } else {
                      if (features[7] < 0.01958189718425274) {
                          return 1;
                      } else {
                          if (features[0] < 9.609079837799072) {
                              if (features[3] < -0.2928667217493057) {
                                  return 1;
                              } else {
                                  return 0;
                              }
                          } else {
                              return 1;
                          }
                      }
                  }
              } else {
                  if (features[10] < 0.008253947831690311) {
                      if (features[10] < 0.002891442971304059) {
                          if (features[3] < -0.0607433095574379) {
                              return 3;
                          } else {
                              return 2;
                          }
                      } else {
                          if (features[7] < 0.013810541480779648) {
                              return 3;
                          } else {
                              return 1;
                          }
                      }
                  } else {
                      if (features[12] < -0.42596057057380676) {
                          return 4;
                      } else {
                          if (features[0] < 9.609219551086426) {
                              return 1;
                          } else {
                              return 4;
                          }
                      }
                  }
              }
          } else {
              if (features[13] < 0.293277382850647) {
                  return 4;
              } else {
                  return 5;
              }
          }
        }
        

static inline int32_t rf_model_predict_tree_10(const float *features, int32_t features_length) {
          if (features[14] < 0.5806885063648224) {
              if (features[9] < 0.05359448306262493) {
                  if (features[7] < 0.009739371947944164) {
                      return 2;
                  } else {
                      return 1;
                  }
              } else {
                  if (features[13] < 0.17608051002025604) {
                      if (features[12] < -0.30521805584430695) {
                          if (features[1] < 40.5) {
                              if (features[6] < 0.09607165679335594) {
                                  return 0;
                              } else {
                                  return 1;
                              }
                          } else {
                              return 1;
                          }
                      } else {
                          if (features[3] < -0.08246473595499992) {
                              return 0;
                          } else {
                              return 3;
                          }
                      }
                  } else {
                      if (features[14] < 0.39283913373947144) {
                          return 3;
                      } else {
                          return 0;
                      }
                  }
              }
          } else {
              if (features[10] < 0.04066868871450424) {
                  return 4;
              } else {
                  return 5;
              }
          }
        }
        

static inline int32_t rf_model_predict_tree_11(const float *features, int32_t features_length) {
          if (features[12] < -0.16268959641456604) {
              if (features[6] < 0.11307791247963905) {
                  if (features[12] < -0.25527726113796234) {
                      if (features[4] < -0.010061037261039019) {
                          return 1;
                      } else {
                          return 1;
                      }
                  } else {
                      if (features[1] < 124.0) {
                          if (features[13] < 0.1317032426595688) {
                              return 0;
                          } else {
                              return 0;
                          }
                      } else {
                          return 1;
                      }
                  }
              } else {
                  if (features[14] < 0.9022251069545746) {
                      if (features[8] < -0.007172296172939241) {
                          return 1;
                      } else {
                          if (features[10] < 0.006538874935358763) {
                              return 0;
                          } else {
                              if (features[2] < 54.5) {
                                  return 1;
                              } else {
                                  return 4;
                              }
                          }
                      }
                  } else {
                      return 5;
                  }
              }
          } else {
              if (features[4] < -0.01924680359661579) {
                  return 3;
              } else {
                  if (features[6] < 0.13138194009661674) {
                      return 2;
                  } else {
                      return 3;
                  }
              }
          }
        }
        

static inline int32_t rf_model_predict_tree_12(const float *features, int32_t features_length) {
          if (features[2] < 15.0) {
              if (features[10] < 0.03453125897794962) {
                  if (features[3] < -0.3686251938343048) {
                      return 4;
                  } else {
                      if (features[10] < 0.005352975567802787) {
                          return 2;
                      } else {
                          return 1;
                      }
                  }
              } else {
                  return 5;
              }
          } else {
              if (features[3] < -0.12089431285858154) {
                  if (features[12] < -0.30881282687187195) {
                      if (features[14] < 0.4807373285293579) {
                          return 1;
                      } else {
                          if (features[11] < 0.1428959220647812) {
                              if (features[4] < -0.004883572401013225) {
                                  return 1;
                              } else {
                                  return 4;
                              }
                          } else {
                              return 5;
                          }
                      }
                  } else {
                      return 0;
                  }
              } else {
                  if (features[4] < -0.016003296710550785) {
                      if (features[0] < 9.608940601348877) {
                          if (features[7] < 0.01777153881266713) {
                              if (features[11] < 0.041251158341765404) {
                                  return 1;
                              } else {
                                  return 3;
                              }
                          } else {
                              return 0;
                          }
                      } else {
                          return 3;
                      }
                  } else {
                      if (features[11] < 0.030007021501660347) {
                          return 2;
                      } else {
                          return 1;
                      }
                  }
              }
          }
        }
        

static inline int32_t rf_model_predict_tree_13(const float *features, int32_t features_length) {
          if (features[6] < 0.2534097731113434) {
              if (features[10] < 0.008746611420065165) {
                  if (features[12] < -0.16268959641456604) {
                      if (features[9] < 0.054848164319992065) {
                          return 1;
                      } else {
                          if (features[14] < 0.34576158225536346) {
                              return 1;
                          } else {
                              if (features[2] < 44.5) {
                                  return 0;
                              } else {
                                  return 0;
                              }
                          }
                      }
                  } else {
                      if (features[12] < -0.07478652149438858) {
                          if (features[4] < -0.021137424744665623) {
                              return 3;
                          } else {
                              return 3;
                          }
                      } else {
                          return 2;
                      }
                  }
              } else {
                  if (features[2] < 62.0) {
                      if (features[12] < -0.4825486093759537) {
                          return 4;
                      } else {
                          return 1;
                      }
                  } else {
                      if (features[13] < 0.14765587449073792) {
                          return 1;
                      } else {
                          return 4;
                      }
                  }
              }
          } else {
              if (features[5] < 0.19214117527008057) {
                  return 5;
              } else {
                  return 4;
              }
          }
        }
        

static inline int32_t rf_model_predict_tree_14(const float *features, int32_t features_length) {
          if (features[14] < 0.34658223390579224) {
              if (features[12] < -0.07478652149438858) {
                  if (features[12] < -0.17643573880195618) {
                      return 1;
                  } else {
                      if (features[1] < 27.0) {
                          return 3;
                      } else {
                          return 3;
                      }
                  }
              } else {
                  return 2;
              }
          } else {
              if (features[14] < 0.5590637028217316) {
                  if (features[12] < -0.23137516528367996) {
                      if (features[6] < 0.06116098538041115) {
                          return 1;
                      } else {
                          if (features[8] < 0.02568760234862566) {
                              if (features[4] < 0.01159886410459876) {
                                  return 1;
                              } else {
                                  return 1;
                              }
                          } else {
                              return 1;
                          }
                      }
                  } else {
                      if (features[4] < -0.04487106017768383) {
                          return 3;
                      } else {
                          return 0;
                      }
                  }
              } else {
                  if (features[13] < 0.3103823959827423) {
                      if (features[6] < 0.10085976868867874) {
                          return 1;
                      } else {
                          if (features[12] < -0.43555161356925964) {
                              return 4;
                          } else {
                              return 4;
                          }
                      }
                  } else {
                      return 5;
                  }
              }
          }
        }
        

static inline int32_t rf_model_predict_tree_15(const float *features, int32_t features_length) {
          if (features[13] < 0.2760753184556961) {
              if (features[7] < 0.009739371947944164) {
                  if (features[14] < 0.2157985121011734) {
                      return 2;
                  } else {
                      if (features[6] < 0.09105612337589264) {
                          if (features[14] < 0.3889901340007782) {
                              return 0;
                          } else {
                              return 1;
                          }
                      } else {
                          return 3;
                      }
                  }
              } else {
                  if (features[14] < 0.5504446625709534) {
                      if (features[13] < 0.17562700808048248) {
                          if (features[6] < 0.08743009716272354) {
                              if (features[9] < 0.06958017870783806) {
                                  return 1;
                              } else {
                                  return 0;
                              }
                          } else {
                              if (features[7] < 0.031880246475338936) {
                                  return 1;
                              } else {
                                  return 1;
                              }
                          }
                      } else {
                          if (features[5] < 0.08566209860146046) {
                              return 0;
                          } else {
                              return 1;
                          }
                      }
                  } else {
                      if (features[2] < 48.5) {
                          return 1;
                      } else {
                          return 4;
                      }
                  }
              }
          } else {
              if (features[14] < 0.8633600771427155) {
                  return 4;
              } else {
                  return 5;
              }
          }
        }
        

static inline int32_t rf_model_predict_tree_16(const float *features, int32_t features_length) {
          if (features[3] < -0.05639936588704586) {
              if (features[7] < 0.006005737348459661) {
                  if (features[1] < 16.0) {
                      return 5;
                  } else {
                      if (features[8] < -0.009597866563126445) {
                          return 0;
                      } else {
                          return 3;
                      }
                  }
              } else {
                  if (features[11] < 0.135709248483181) {
                      if (features[12] < -0.43555161356925964) {
                          if (features[6] < 0.10085976868867874) {
                              return 1;
                          } else {
                              return 4;
                          }
                      } else {
                          if (features[6] < 0.057775139808654785) {
                              return 0;
                          } else {
                              if (features[3] < -0.06333262287080288) {
                                  return 1;
                              } else {
                                  return 3;
                              }
                          }
                      }
                  } else {
                      return 5;
                  }
              }
          } else {
              return 2;
          }
        }
        

static inline int32_t rf_model_predict_tree_17(const float *features, int32_t features_length) {
          if (features[9] < 0.09113950654864311) {
              if (features[3] < -0.05330210365355015) {
                  if (features[14] < 0.3484865874052048) {
                      if (features[1] < 27.0) {
                          return 0;
                      } else {
                          if (features[14] < 0.23084475100040436) {
                              return 2;
                          } else {
                              if (features[4] < -0.01340403500944376) {
                                  return 3;
                              } else {
                                  return 0;
                              }
                          }
                      }
                  } else {
                      if (features[12] < -0.3062242418527603) {
                          return 1;
                      } else {
                          if (features[10] < 0.003643937292508781) {
                              return 1;
                          } else {
                              if (features[12] < -0.1638026088476181) {
                                  return 0;
                              } else {
                                  return 3;
                              }
                          }
                      }
                  }
              } else {
                  return 2;
              }
          } else {
              if (features[2] < 70.0) {
                  if (features[12] < -0.5129706859588623) {
                      if (features[3] < -0.414991170167923) {
                          return 5;
                      } else {
                          return 4;
                      }
                  } else {
                      return 1;
                  }
              } else {
                  if (features[3] < -0.43617455661296844) {
                      return 5;
                  } else {
                      return 4;
                  }
              }
          }
        }
        

static inline int32_t rf_model_predict_tree_18(const float *features, int32_t features_length) {
          if (features[7] < 0.014746543485671282) {
              if (features[3] < -0.05548747256398201) {
                  if (features[8] < -0.0019463517819531262) {
                      return 1;
                  } else {
                      if (features[2] < 220.5) {
                          return 3;
                      } else {
                          return 0;
                      }
                  }
              } else {
                  return 2;
              }
          } else {
              if (features[9] < 0.20144884288311005) {
                  if (features[13] < 0.1335233598947525) {
                      return 1;
                  } else {
                      if (features[6] < 0.10567674785852432) {
                          if (features[5] < 0.0713147409260273) {
                              return 0;
                          } else {
                              return 1;
                          }
                      } else {
                          if (features[3] < -0.3475392162799835) {
                              return 4;
                          } else {
                              if (features[14] < 0.5619293749332428) {
                                  return 1;
                              } else {
                                  return 1;
                              }
                          }
                      }
                  }
              } else {
                  return 5;
              }
          }
        }
        

static inline int32_t rf_model_predict_tree_19(const float *features, int32_t features_length) {
          if (features[14] < 0.23174504935741425) {
              return 2;
          } else {
              if (features[3] < -0.18880099058151245) {
                  if (features[9] < 0.19531119614839554) {
                      if (features[2] < 69.5) {
                          if (features[3] < -0.33785656094551086) {
                              return 4;
                          } else {
                              if (features[6] < 0.07742539793252945) {
                                  return 0;
                              } else {
                                  return 1;
                              }
                          }
                      } else {
                          return 4;
                      }
                  } else {
                      return 5;
                  }
              } else {
                  if (features[7] < 0.011712698731571436) {
                      if (features[6] < 0.08433905802667141) {
                          return 0;
                      } else {
                          return 3;
                      }
                  } else {
                      if (features[11] < 0.06427163630723953) {
                          if (features[13] < 0.1317032426595688) {
                              return 1;
                          } else {
                              return 0;
                          }
                      } else {
                          return 1;
                      }
                  }
              }
          }
        }
        

static inline int32_t rf_model_predict_tree_20(const float *features, int32_t features_length) {
          if (features[9] < 0.20144884288311005) {
              if (features[3] < -0.05072890594601631) {
                  if (features[12] < -0.1621829867362976) {
                      if (features[12] < -0.4098474085330963) {
                          if (features[7] < 0.05689779296517372) {
                              return 4;
                          } else {
                              return 4;
                          }
                      } else {
                          if (features[12] < -0.24384868890047073) {
                              if (features[4] < -0.02949064690619707) {
                                  return 0;
                              } else {
                                  return 1;
                              }
                          } else {
                              if (features[4] < -0.005992004065774381) {
                                  return 0;
                              } else {
                                  return 0;
                              }
                          }
                      }
                  } else {
                      if (features[7] < 0.02899441495537758) {
                          return 3;
                      } else {
                          return 0;
                      }
                  }
              } else {
                  return 2;
              }
          } else {
              return 5;
          }
        }
        

static inline int32_t rf_model_predict_tree_21(const float *features, int32_t features_length) {
          if (features[14] < 0.5504446625709534) {
              if (features[3] < -0.05548747256398201) {
                  if (features[10] < 0.009000321850180626) {
                      if (features[6] < 0.11951060593128204) {
                          if (features[11] < 0.03950055129826069) {
                              return 1;
                          } else {
                              if (features[4] < -0.01227973261848092) {
                                  return 0;
                              } else {
                                  return 0;
                              }
                          }
                      } else {
                          return 3;
                      }
                  } else {
                      return 1;
                  }
              } else {
                  return 2;
              }
          } else {
              if (features[9] < 0.20312928408384323) {
                  if (features[4] < -0.0038514358457177877) {
                      return 4;
                  } else {
                      if (features[6] < 0.16786296665668488) {
                          return 4;
                      } else {
                          return 4;
                      }
                  }
              } else {
                  return 5;
              }
          }
        }
        

static inline int32_t rf_model_predict_tree_22(const float *features, int32_t features_length) {
          if (features[13] < 0.293277382850647) {
              if (features[12] < -0.07033265382051468) {
                  if (features[3] < -0.12788597866892815) {
                      if (features[6] < 0.08722873777151108) {
                          if (features[2] < 24.5) {
                              return 1;
                          } else {
                              return 0;
                          }
                      } else {
                          if (features[9] < 0.10985108092427254) {
                              if (features[2] < 186.0) {
                                  return 1;
                              } else {
                                  return 4;
                              }
                          } else {
                              if (features[9] < 0.1418023258447647) {
                                  return 1;
                              } else {
                                  return 4;
                              }
                          }
                      }
                  } else {
                      if (features[14] < 0.34903958439826965) {
                          return 3;
                      } else {
                          if (features[5] < 0.06224188767373562) {
                              if (features[7] < 0.010195623617619276) {
                                  return 1;
                              } else {
                                  return 0;
                              }
                          } else {
                              return 3;
                          }
                      }
                  }
              } else {
                  return 2;
              }
          } else {
              if (features[9] < 0.18808548897504807) {
                  return 4;
              } else {
                  return 5;
              }
          }
        }
        

static inline int32_t rf_model_predict_tree_23(const float *features, int32_t features_length) {
          if (features[3] < -0.4268839955329895) {
              return 5;
          } else {
              if (features[6] < 0.11307791247963905) {
                  if (features[12] < -0.30521805584430695) {
                      if (features[12] < -0.4386187344789505) {
                          return 4;
                      } else {
                          return 1;
                      }
                  } else {
                      if (features[11] < 0.033128051087260246) {
                          if (features[9] < 0.04115231893956661) {
                              return 2;
                          } else {
                              return 1;
                          }
                      } else {
                          if (features[14] < 0.25679342448711395) {
                              return 3;
                          } else {
                              if (features[0] < 9.609126567840576) {
                                  return 0;
                              } else {
                                  return 0;
                              }
                          }
                      }
                  }
              } else {
                  if (features[7] < 0.01634052535519004) {
                      if (features[2] < 14.0) {
                          return 2;
                      } else {
                          return 3;
                      }
                  } else {
                      if (features[9] < 0.1423264592885971) {
                          if (features[9] < 0.12452109903097153) {
                              return 4;
                          } else {
                              return 1;
                          }
                      } else {
                          return 4;
                      }
                  }
              }
          }
        }
        

static inline int32_t rf_model_predict_tree_24(const float *features, int32_t features_length) {
          if (features[9] < 0.20144884288311005) {
              if (features[6] < 0.18158452212810516) {
                  if (features[12] < -0.07478652149438858) {
                      if (features[6] < 0.09292599186301231) {
                          if (features[14] < 0.5229560285806656) {
                              if (features[11] < 0.03950055129826069) {
                                  return 1;
                              } else {
                                  return 0;
                              }
                          } else {
                              return 4;
                          }
                      } else {
                          if (features[8] < 0.025286278687417507) {
                              if (features[14] < 0.3529438227415085) {
                                  return 3;
                              } else {
                                  return 1;
                              }
                          } else {
                              return 1;
                          }
                      }
                  } else {
                      return 2;
                  }
              } else {
                  if (features[11] < 0.08573585748672485) {
                      return 3;
                  } else {
                      return 4;
                  }
              }
          } else {
              return 5;
          }
        }
        

static inline int32_t rf_model_predict_tree_25(const float *features, int32_t features_length) {
          if (features[12] < -0.07478652149438858) {
              if (features[9] < 0.20144884288311005) {
                  if (features[10] < 0.008253947831690311) {
                      if (features[7] < 0.006005737348459661) {
                          if (features[14] < 0.3549763560295105) {
                              return 3;
                          } else {
                              return 0;
                          }
                      } else {
                          if (features[11] < 0.06396141275763512) {
                              if (features[12] < -0.11955900490283966) {
                                  return 0;
                              } else {
                                  return 3;
                              }
                          } else {
                              return 1;
                          }
                      }
                  } else {
                      if (features[12] < -0.4377187341451645) {
                          if (features[13] < 0.11611346900463104) {
                              return 1;
                          } else {
                              return 4;
                          }
                      } else {
                          if (features[10] < 0.008836226537823677) {
                              return 4;
                          } else {
                              if (features[0] < 9.60898733139038) {
                                  return 1;
                              } else {
                                  return 1;
                              }
                          }
                      }
                  }
              } else {
                  return 5;
              }
          } else {
              return 2;
          }
        }
        

static inline int32_t rf_model_predict_tree_26(const float *features, int32_t features_length) {
          if (features[10] < 0.04066868871450424) {
              if (features[9] < 0.10985108092427254) {
                  if (features[9] < 0.048529479652643204) {
                      if (features[4] < -0.01737632416188717) {
                          return 3;
                      } else {
                          return 2;
                      }
                  } else {
                      if (features[6] < 0.11652211099863052) {
                          if (features[11] < 0.07162418588995934) {
                              if (features[11] < 0.033128051087260246) {
                                  return 1;
                              } else {
                                  return 0;
                              }
                          } else {
                              return 1;
                          }
                      } else {
                          if (features[3] < -0.1315954439342022) {
                              return 1;
                          } else {
                              return 3;
                          }
                      }
                  }
              } else {
                  if (features[13] < 0.11995605379343033) {
                      return 1;
                  } else {
                      return 4;
                  }
              }
          } else {
              return 5;
          }
        }
        

static inline int32_t rf_model_predict_tree_27(const float *features, int32_t features_length) {
          if (features[14] < 0.3287966549396515) {
              if (features[3] < -0.04749199002981186) {
                  if (features[4] < -0.015649891924113035) {
                      if (features[12] < -0.14103640615940094) {
                          return 0;
                      } else {
                          return 3;
                      }
                  } else {
                      return 0;
                  }
              } else {
                  return 2;
              }
          } else {
              if (features[3] < -0.4279989004135132) {
                  return 5;
              } else {
                  if (features[13] < 0.1860167235136032) {
                      if (features[11] < 0.0696873888373375) {
                          if (features[10] < 0.007316941861063242) {
                              if (features[7] < 0.03961760178208351) {
                                  return 1;
                              } else {
                                  return 0;
                              }
                          } else {
                              return 4;
                          }
                      } else {
                          if (features[13] < 0.14765587449073792) {
                              return 1;
                          } else {
                              return 1;
                          }
                      }
                  } else {
                      if (features[11] < 0.09090042859315872) {
                          if (features[6] < 0.14023474603891373) {
                              return 0;
                          } else {
                              return 1;
                          }
                      } else {
                          return 4;
                      }
                  }
              }
          }
        }
        

static inline int32_t rf_model_predict_tree_28(const float *features, int32_t features_length) {
          if (features[10] < 0.013043069746345282) {
              if (features[14] < 0.19923032075166702) {
                  return 2;
              } else {
                  if (features[4] < -0.03398205526173115) {
                      return 3;
                  } else {
                      if (features[14] < 0.3310733288526535) {
                          if (features[14] < 0.2606366127729416) {
                              return 3;
                          } else {
                              return 0;
                          }
                      } else {
                          if (features[12] < -0.29426679015159607) {
                              return 1;
                          } else {
                              if (features[2] < 53.0) {
                                  return 0;
                              } else {
                                  return 1;
                              }
                          }
                      }
                  }
              }
          } else {
              if (features[10] < 0.04066868871450424) {
                  if (features[5] < 0.07635090127587318) {
                      return 1;
                  } else {
                      if (features[2] < 54.5) {
                          return 1;
                      } else {
                          return 4;
                      }
                  }
              } else {
                  return 5;
              }
          }
        }
        

static inline int32_t rf_model_predict_tree_29(const float *features, int32_t features_length) {
          if (features[11] < 0.135709248483181) {
              if (features[11] < 0.07147025689482689) {
                  if (features[9] < 0.04533154331147671) {
                      if (features[8] < 0.005662273964844644) {
                          return 3;
                      } else {
                          return 2;
                      }
                  } else {
                      if (features[4] < -0.021137424744665623) {
                          if (features[12] < -0.17422406375408173) {
                              return 0;
                          } else {
                              return 3;
                          }
                      } else {
                          if (features[1] < 123.0) {
                              if (features[12] < -0.24929044395685196) {
                                  return 1;
                              } else {
                                  return 0;
                              }
                          } else {
                              return 1;
                          }
                      }
                  }
              } else {
                  if (features[12] < -0.49554553627967834) {
                      return 4;
                  } else {
                      if (features[14] < 0.6663307547569275) {
                          if (features[2] < 105.5) {
                              return 1;
                          } else {
                              return 1;
                          }
                      } else {
                          return 4;
                      }
                  }
              }
          } else {
              return 5;
          }
        }
        

static inline int32_t rf_model_predict_tree_30(const float *features, int32_t features_length) {
          if (features[6] < 0.24593743681907654) {
              if (features[3] < -0.1176164448261261) {
                  if (features[14] < 0.5806885063648224) {
                      if (features[12] < -0.26456068456172943) {
                          if (features[14] < 0.5504446625709534) {
                              if (features[12] < -0.3451200872659683) {
                                  return 1;
                              } else {
                                  return 1;
                              }
                          } else {
                              return 1;
                          }
                      } else {
                          if (features[3] < -0.12788597866892815) {
                              if (features[4] < -0.005622425116598606) {
                                  return 0;
                              } else {
                                  return 1;
                              }
                          } else {
                              return 1;
                          }
                      }
                  } else {
                      if (features[2] < 31.0) {
                          return 1;
                      } else {
                          return 4;
                      }
                  }
              } else {
                  if (features[4] < -0.02153508085757494) {
                      return 3;
                  } else {
                      if (features[3] < -0.06105966120958328) {
                          return 0;
                      } else {
                          return 2;
                      }
                  }
              }
          } else {
              if (features[9] < 0.20144884288311005) {
                  return 4;
              } else {
                  return 5;
              }
          }
        }
        

static inline int32_t rf_model_predict_tree_31(const float *features, int32_t features_length) {
          if (features[4] < -0.016003296710550785) {
              if (features[8] < 0.0030340866651386023) {
                  if (features[14] < 0.348677322268486) {
                      return 3;
                  } else {
                      if (features[4] < -0.03813165798783302) {
                          return 5;
                      } else {
                          return 0;
                      }
                  }
              } else {
                  if (features[3] < -0.13844581320881844) {
                      return 0;
                  } else {
                      if (features[7] < 0.01714957132935524) {
                          return 3;
                      } else {
                          return 3;
                      }
                  }
              }
          } else {
              if (features[9] < 0.05192326568067074) {
                  return 2;
              } else {
                  if (features[12] < -0.4377187341451645) {
                      if (features[10] < 0.04066868871450424) {
                          if (features[5] < 0.07635090127587318) {
                              return 1;
                          } else {
                              return 4;
                          }
                      } else {
                          return 5;
                      }
                  } else {
                      if (features[3] < -0.13904519379138947) {
                          if (features[12] < -0.20234931260347366) {
                              if (features[14] < 0.5728012919425964) {
                                  return 1;
                              } else {
                                  return 1;
                              }
                          } else {
                              return 0;
                          }
                      } else {
                          return 0;
                      }
                  }
              }
          }
        }
        

static inline int32_t rf_model_predict_tree_32(const float *features, int32_t features_length) {
          if (features[9] < 0.09113950654864311) {
              if (features[7] < 0.020120549015700817) {
                  if (features[12] < -0.0794537179172039) {
                      if (features[12] < -0.17220709472894669) {
                          if (features[2] < 134.5) {
                              return 1;
                          } else {
                              return 0;
                          }
                      } else {
                          return 3;
                      }
                  } else {
                      return 2;
                  }
              } else {
                  return 0;
              }
          } else {
              if (features[11] < 0.1291743442416191) {
                  if (features[9] < 0.1418023258447647) {
                      if (features[4] < 0.010685140267014503) {
                          return 1;
                      } else {
                          if (features[9] < 0.13641394674777985) {
                              return 4;
                          } else {
                              return 1;
                          }
                      }
                  } else {
                      if (features[5] < 0.11399761959910393) {
                          return 4;
                      } else {
                          return 4;
                      }
                  }
              } else {
                  if (features[7] < 0.11288460716605186) {
                      return 5;
                  } else {
                      return 4;
                  }
              }
          }
        }
        

static inline int32_t rf_model_predict_tree_33(const float *features, int32_t features_length) {
          if (features[12] < -0.43555161356925964) {
              if (features[3] < -0.4279989004135132) {
                  return 5;
              } else {
                  return 4;
              }
          } else {
              if (features[14] < 0.34903958439826965) {
                  if (features[14] < 0.19923032075166702) {
                      return 2;
                  } else {
                      if (features[0] < 9.608754634857178) {
                          return 0;
                      } else {
                          if (features[9] < 0.06175578758120537) {
                              return 3;
                          } else {
                              return 3;
                          }
                      }
                  }
              } else {
                  if (features[11] < 0.06253433786332607) {
                      if (features[12] < -0.2444981262087822) {
                          if (features[8] < -0.0034222108079120517) {
                              return 0;
                          } else {
                              return 1;
                          }
                      } else {
                          return 0;
                      }
                  } else {
                      if (features[5] < 0.06106692738831043) {
                          return 4;
                      } else {
                          if (features[7] < 0.0025461595505476) {
                              return 3;
                          } else {
                              if (features[5] < 0.07020660862326622) {
                                  return 1;
                              } else {
                                  return 1;
                              }
                          }
                      }
                  }
              }
          }
        }
        

static inline int32_t rf_model_predict_tree_34(const float *features, int32_t features_length) {
          if (features[9] < 0.20213069021701813) {
              if (features[3] < -0.11009350791573524) {
                  if (features[14] < 0.5806885063648224) {
                      if (features[12] < -0.24993988126516342) {
                          if (features[7] < -0.0038645591703243554) {
                              return 0;
                          } else {
                              if (features[4] < -0.028975187800824642) {
                                  return 0;
                              } else {
                                  return 1;
                              }
                          }
                      } else {
                          if (features[1] < 86.0) {
                              return 0;
                          } else {
                              return 1;
                          }
                      }
                  } else {
                      if (features[12] < -0.43555161356925964) {
                          return 4;
                      } else {
                          return 1;
                      }
                  }
              } else {
                  if (features[4] < -0.021137424744665623) {
                      return 3;
                  } else {
                      if (features[10] < 0.0026960279792547226) {
                          if (features[12] < -0.10831812024116516) {
                              return 0;
                          } else {
                              return 2;
                          }
                      } else {
                          if (features[14] < 0.33892177045345306) {
                              return 3;
                          } else {
                              if (features[12] < -0.23450453579425812) {
                                  return 1;
                              } else {
                                  return 0;
                              }
                          }
                      }
                  }
              }
          } else {
              return 5;
          }
        }
        

static inline int32_t rf_model_predict_tree_35(const float *features, int32_t features_length) {
          if (features[14] < 0.2157985121011734) {
              return 2;
          } else {
              if (features[12] < -0.16268959641456604) {
                  if (features[14] < 0.5619293749332428) {
                      if (features[5] < 0.04091677628457546) {
                          if (features[2] < 278.0) {
                              if (features[2] < 44.5) {
                                  return 0;
                              } else {
                                  return 0;
                              }
                          } else {
                              return 1;
                          }
                      } else {
                          if (features[9] < 0.0632862076163292) {
                              return 0;
                          } else {
                              if (features[0] < 9.609033584594727) {
                                  return 1;
                              } else {
                                  return 1;
                              }
                          }
                      }
                  } else {
                      if (features[6] < 0.24593743681907654) {
                          if (features[5] < 0.11773491650819778) {
                              return 4;
                          } else {
                              return 4;
                          }
                      } else {
                          return 5;
                      }
                  }
              } else {
                  if (features[12] < -0.13673298805952072) {
                      return 3;
                  } else {
                      return 3;
                  }
              }
          }
        }
        

static inline int32_t rf_model_predict_tree_36(const float *features, int32_t features_length) {
          if (features[12] < -0.16268959641456604) {
              if (features[14] < 0.6473888456821442) {
                  if (features[0] < 9.608707904815674) {
                      return 0;
                  } else {
                      if (features[12] < -0.30269356071949005) {
                          if (features[5] < 0.06932950764894485) {
                              if (features[14] < 0.4852757304906845) {
                                  return 1;
                              } else {
                                  return 4;
                              }
                          } else {
                              return 1;
                          }
                      } else {
                          if (features[11] < 0.04763074219226837) {
                              if (features[14] < 0.3530564308166504) {
                                  return 1;
                              } else {
                                  return 0;
                              }
                          } else {
                              return 1;
                          }
                      }
                  }
              } else {
                  if (features[9] < 0.20144884288311005) {
                      return 4;
                  } else {
                      return 5;
                  }
              }
          } else {
              if (features[12] < -0.07478652149438858) {
                  return 3;
              } else {
                  return 2;
              }
          }
        }
        

static inline int32_t rf_model_predict_tree_37(const float *features, int32_t features_length) {
          if (features[9] < 0.20144884288311005) {
              if (features[12] < -0.16268959641456604) {
                  if (features[6] < 0.12944432348012924) {
                      if (features[13] < 0.187192901968956) {
                          if (features[1] < 40.5) {
                              if (features[14] < 0.384274423122406) {
                                  return 0;
                              } else {
                                  return 1;
                              }
                          } else {
                              if (features[13] < 0.16626392304897308) {
                                  return 1;
                              } else {
                                  return 0;
                              }
                          }
                      } else {
                          return 0;
                      }
                  } else {
                      if (features[13] < 0.20444318652153015) {
                          return 4;
                      } else {
                          return 4;
                      }
                  }
              } else {
                  if (features[11] < 0.03474349528551102) {
                      if (features[1] < 275.5) {
                          return 2;
                      } else {
